<?xml version="1.0"?>
<opencv_storage>
<cascade>
  <stageType>BOOST</stageType>
  <featureType>LBP</featureType>
  <height>32</height>
  <width>32</width>
  <stageParams>
    <boostType>GAB</boostType>
    <minHitRate>9.9900001287460327e-01</minHitRate>
    <maxFalseAlarm>4.0000000596046448e-01</maxFalseAlarm>
    <weightTrimRate>9.4999999999999996e-01</weightTrimRate>
    <maxDepth>1</maxDepth>
    <maxWeakCount>100</maxWeakCount></stageParams>
  <featureParams>
    <maxCatCount>256</maxCatCount>
    <featSize>1</featSize></featureParams>
  <stageNum>13</stageNum>
  <stages>
    <!-- stage 0 -->
    <_>
      <maxWeakCount>3</maxWeakCount>
      <stageThreshold>-9.1801559925079346e-01</stageThreshold>
      <weakClassifiers>
        <_>
          <internalNodes>
            0 -1 7 -1 -8737 -406860306 -1089 -1025 -67126785 -72351761
            -1</internalNodes>
          <leafValues>
            -9.3796932697296143e-01 9.9077409505844116e-01</leafValues></_>
        <_>
          <internalNodes>
            0 -1 11 -1 -285212673 2147479234 -371208406 -65 1602092031
            -16777494 -1</internalNodes>
          <leafValues>
            -8.6636012792587280e-01 9.4847035408020020e-01</leafValues></_>
        <_>
          <internalNodes>
            0 -1 55 -143270075 -606602801 1369791799 -145231613
            -281552621 1629738447 -905709729 -545259681</internalNodes>
          <leafValues>
            -8.5069912672042847e-01 8.8631385564804077e-01</leafValues></_></weakClassifiers></_>
    <!-- stage 1 -->
    <_>
      <maxWeakCount>2</maxWeakCount>
      <stageThreshold>-9.6371494233608246e-02</stageThreshold>
      <weakClassifiers>
        <_>
          <internalNodes>
            0 -1 8 -17891329 -17899533 -219218081 -534529 -3145729
            -2100773 -257 -3073</internalNodes>
          <leafValues>
            -9.3500530719757080e-01 9.2718648910522461e-01</leafValues></_>
        <_>
          <internalNodes>
            0 -1 53 -1 -549889 -34658817 1336904622 -71828481 -1067093
            -2098945 268414975</internalNodes>
          <leafValues>
            -9.6628218889236450e-01 8.3863383531570435e-01</leafValues></_></weakClassifiers></_>
    <!-- stage 2 -->
    <_>
      <maxWeakCount>3</maxWeakCount>
      <stageThreshold>-1.0167335271835327e+00</stageThreshold>
      <weakClassifiers>
        <_>
          <internalNodes>
            0 -1 4 -134217729 -1 -267058 -8225 -1711287297 -14203
            -4194305 -1</internalNodes>
          <leafValues>
            -8.8781833648681641e-01 9.2754441499710083e-01</leafValues></_>
        <_>
          <internalNodes>
            0 -1 52 -2049 -2133537 1430256895 -2141701 -36708385
            -6581009 2068182615 -8922281</internalNodes>
          <leafValues>
            -8.9184981584548950e-01 8.3871805667877197e-01</leafValues></_>
        <_>
          <internalNodes>
            0 -1 50 -2053 -795661 -708651894 -3589 -174335493 -1326973
            -219414805 1602224127</internalNodes>
          <leafValues>
            -8.7408387660980225e-01 7.6293462514877319e-01</leafValues></_></weakClassifiers></_>
    <!-- stage 3 -->
    <_>
      <maxWeakCount>3</maxWeakCount>
      <stageThreshold>-9.4015073776245117e-01</stageThreshold>
      <weakClassifiers>
        <_>
          <internalNodes>
            0 -1 18 -11151361 -32785 -752878083 -70389556 -2146918209
            -74874479 -1682179844 -1050132</internalNodes>
          <leafValues>
            -8.8235294818878174e-01 9.0415155887603760e-01</leafValues></_>
        <_>
          <internalNodes>
            0 -1 30 -73412139 -738209261 -385780227 -2101029 -628434467
            -70319445 -628360225 -1412711681</internalNodes>
          <leafValues>
            -7.7304047346115112e-01 8.2861596345901489e-01</leafValues></_>
        <_>
          <internalNodes>
            0 -1 34 -67109897 -797735 -107998221 -572555937 -1097096277
            -99975029 -3094277 1291571711</internalNodes>
          <leafValues>
            -8.8641375303268433e-01 7.3606020212173462e-01</leafValues></_></weakClassifiers></_>
    <!-- stage 4 -->
    <_>
      <maxWeakCount>5</maxWeakCount>
      <stageThreshold>-1.0564247369766235e+00</stageThreshold>
      <weakClassifiers>
        <_>
          <internalNodes>
            0 -1 40 -783560194 -203693615 -1873619776 -42741709
            -788278529 -100593533 -357842705 -1051741</internalNodes>
          <leafValues>
            -9.2121887207031250e-01 8.8644134998321533e-01</leafValues></_>
        <_>
          <internalNodes>
            0 -1 13 -890314753 -603979777 -1 -257 -16777217 -131073
            -974127361 -10249</internalNodes>
          <leafValues>
            -7.9110968112945557e-01 8.5769444704055786e-01</leafValues></_>
        <_>
          <internalNodes>
            0 -1 47 865564159 -583728883 1440289279 -674031238
            -1155816722 -1148639093 995359439 -538740024</internalNodes>
          <leafValues>
            -7.5156342983245850e-01 7.9021018743515015e-01</leafValues></_>
        <_>
          <internalNodes>
            0 -1 20 -1937376321 -863170383 -1860927147 1688043607
            -1551248993 -1622704128 -2012482661 -277873741</internalNodes>
          <leafValues>
            -7.2885459661483765e-01 7.1037667989730835e-01</leafValues></_>
        <_>
          <internalNodes>
            0 -1 44 2080371679 -13164101 83997011 2008224763 1259309646
            445251723 722991811 2071951583</internalNodes>
          <leafValues>
            -7.2641909122467041e-01 6.9709062576293945e-01</leafValues></_></weakClassifiers></_>
    <!-- stage 5 -->
    <_>
      <maxWeakCount>5</maxWeakCount>
      <stageThreshold>-1.0134153366088867e+00</stageThreshold>
      <weakClassifiers>
        <_>
          <internalNodes>
            0 -1 54 -1195 -610303877 -1064762913 -14962033 -1431308053
            -1685487477 -1953777153 -17665</internalNodes>
          <leafValues>
            -8.9238017797470093e-01 8.4142744541168213e-01</leafValues></_>
        <_>
          <internalNodes>
            0 -1 27 -216804865 -638725133 -1118324225 1439685627
            -669930501 -1162222880 -7340033 -51708694</internalNodes>
          <leafValues>
            -7.5768595933914185e-01 7.9106581211090088e-01</leafValues></_>
        <_>
          <internalNodes>
            0 -1 1 -2097153 -16842753 -33554449 -1 -67174401 -50331649
            -526482 -536871041</internalNodes>
          <leafValues>
            -7.0714950561523438e-01 7.5388872623443604e-01</leafValues></_>
        <_>
          <internalNodes>
            0 -1 23 2112872447 -1890615409 1358404063 -732965633
            -1315193093 423198867 1440612351 1056964607</internalNodes>
          <leafValues>
            -7.2322148084640503e-01 6.8166005611419678e-01</leafValues></_>
        <_>
          <internalNodes>
            0 -1 56 -606105249 -804716499 1107417079 -116555631
            655085915 671613067 327637847 -68828425</internalNodes>
          <leafValues>
            -7.7762341499328613e-01 6.6214030981063843e-01</leafValues></_></weakClassifiers></_>
    <!-- stage 6 -->
    <_>
      <maxWeakCount>5</maxWeakCount>
      <stageThreshold>-1.1264331340789795e+00</stageThreshold>
      <weakClassifiers>
        <_>
          <internalNodes>
            0 -1 38 -578045953 -1109536467 -8465921 -4363265 -771751937
            -4255299 -1176701100 -65586</internalNodes>
          <leafValues>
            -9.1031777858734131e-01 7.9073089361190796e-01</leafValues></_>
        <_>
          <internalNodes>
            0 -1 9 -705039889 -170405679 -124126721 -6565415 -118425921
            -203898709 -258420481 -170134565</internalNodes>
          <leafValues>
            -7.7343779802322388e-01 7.0022493600845337e-01</leafValues></_>
        <_>
          <internalNodes>
            0 -1 43 -42476822 1933048283 289659735 1937767391
            -1852321025 -234671561 1440217087 -671089665</internalNodes>
          <leafValues>
            -8.1742686033248901e-01 5.8012098073959351e-01</leafValues></_>
        <_>
          <internalNodes>
            0 -1 19 269685233 1364271121 16779537 218824995 1090551866
            -1189068783 170559903 438704271</internalNodes>
          <leafValues>
            -6.6877430677413940e-01 7.3854136466979980e-01</leafValues></_>
        <_>
          <internalNodes>
            0 -1 12 -171707393 1360082368 366465503 -2755862 -1593450246
            -937426770 -560464897 -50332946</internalNodes>
          <leafValues>
            -7.6133984327316284e-01 6.3975715637207031e-01</leafValues></_></weakClassifiers></_>
    <!-- stage 7 -->
    <_>
      <maxWeakCount>5</maxWeakCount>
      <stageThreshold>-1.0343844890594482e+00</stageThreshold>
      <weakClassifiers>
        <_>
          <internalNodes>
            0 -1 37 -268439043 -1246915077 -2102470156 -167786561
            -69618723 -4423073 -103088932 -100679713</internalNodes>
          <leafValues>
            -8.8687992095947266e-01 7.5392067432403564e-01</leafValues></_>
        <_>
          <internalNodes>
            0 -1 22 -273678465 -318770789 -479112425 -1944194287
            -78665585 -1324629841 -13792461 -1912735037</internalNodes>
          <leafValues>
            -8.2560437917709351e-01 6.1807531118392944e-01</leafValues></_>
        <_>
          <internalNodes>
            0 -1 2 -1360023817 -1052929 -1069313 -1 -524289 -8388609
            -268488705 -8554505</internalNodes>
          <leafValues>
            -5.8535397052764893e-01 7.3028808832168579e-01</leafValues></_>
        <_>
          <internalNodes>
            0 -1 49 -1868151337 -1861021655 -2143284737 -570490758
            -536221209 -1862456077 640203483 2071622495</internalNodes>
          <leafValues>
            -7.3398625850677490e-01 6.3460248708724976e-01</leafValues></_>
        <_>
          <internalNodes>
            0 -1 65 -4194316 -116408165 1342853343 -1143406450 -86050344
            -75333501 -349508902 -344199301</internalNodes>
          <leafValues>
            -6.6434270143508911e-01 6.2885123491287231e-01</leafValues></_></weakClassifiers></_>
    <!-- stage 8 -->
    <_>
      <maxWeakCount>7</maxWeakCount>
      <stageThreshold>-1.0931463241577148e+00</stageThreshold>
      <weakClassifiers>
        <_>
          <internalNodes>
            0 -1 57 -167780097 -1867793941 -1260191297 -1012948497
            -251962401 -1896947461 -277389473 -655529</internalNodes>
          <leafValues>
            -7.9254871606826782e-01 7.6878762245178223e-01</leafValues></_>
        <_>
          <internalNodes>
            0 -1 51 -675285266 -1208522795 -1609850633 -146279435
            1543238318 1266836031 2139060982 -201328641</internalNodes>
          <leafValues>
            -7.2217267751693726e-01 6.8021285533905029e-01</leafValues></_>
        <_>
          <internalNodes>
            0 -1 3 -25168897 -16908003 -675085877 -272694973 -11827057
            -4521841 -1416167381 -2100981</internalNodes>
          <leafValues>
            -7.3839879035949707e-01 6.3029736280441284e-01</leafValues></_>
        <_>
          <internalNodes>
            0 -1 24 -3157749 -1129465174 723468319 -1073741825 -209
            -1073741825 2134900639 -1073741825</internalNodes>
          <leafValues>
            -6.1771130561828613e-01 6.9135272502899170e-01</leafValues></_>
        <_>
          <internalNodes>
            0 -1 39 -469565449 -788330441 1527970300 285430769
            -519953929 -1063241375 1991690479 -1236534621</internalNodes>
          <leafValues>
            -7.6648998260498047e-01 5.2148222923278809e-01</leafValues></_>
        <_>
          <internalNodes>
            0 -1 29 -332827777 -80281597 -788332285 2067759891
            1532203075 1671012352 -2094333813 796129419</internalNodes>
          <leafValues>
            -7.6384443044662476e-01 5.2136355638504028e-01</leafValues></_>
        <_>
          <internalNodes>
            0 -1 5 -707953153 2145300186 -1 -103824210 2147450869
            -5098387 2079096830 -1142964229</internalNodes>
          <leafValues>
            -5.7422459125518799e-01 7.1996361017227173e-01</leafValues></_></weakClassifiers></_>
    <!-- stage 9 -->
    <_>
      <maxWeakCount>7</maxWeakCount>
      <stageThreshold>-1.5481755733489990e+00</stageThreshold>
      <weakClassifiers>
        <_>
          <internalNodes>
            0 -1 36 -174737409 -2949093 -1793068293 -34344553
            -1985767473 -1112278989 -1141703736 -1280</internalNodes>
          <leafValues>
            -8.5174691677093506e-01 7.3636132478713989e-01</leafValues></_>
        <_>
          <internalNodes>
            0 -1 33 -145522264 -4729921 -1828648547 -805346309
            -243171084 -1280634413 -206992951 -989860945</internalNodes>
          <leafValues>
            -7.9562538862228394e-01 5.3830814361572266e-01</leafValues></_>
        <_>
          <internalNodes>
            0 -1 61 -1409303561 -27295425 -1182101025 -1560335893
            -1433474139 -1432188286 -1433691473 -879756501</internalNodes>
          <leafValues>
            -6.7328608036041260e-01 5.3717303276062012e-01</leafValues></_>
        <_>
          <internalNodes>
            0 -1 25 -214759119 1397175163 1576206653 1376219380
            -2103244389 726859778 -100983905 1051689107</internalNodes>
          <leafValues>
            -6.9839537143707275e-01 5.3803342580795288e-01</leafValues></_>
        <_>
          <internalNodes>
            0 -1 60 -85077665 -235052866 41988299 -1719024981
            -1416369661 38470019 -1969114717 -357647733</internalNodes>
          <leafValues>
            -6.8335473537445068e-01 5.0624680519104004e-01</leafValues></_>
        <_>
          <internalNodes>
            0 -1 21 1865127871 -353373797 2068156433 -839008109
            324583547 1513324697 2077868203 -842143531</internalNodes>
          <leafValues>
            -6.9891673326492310e-01 4.9535241723060608e-01</leafValues></_>
        <_>
          <internalNodes>
            0 -1 31 -69479425 -131337218 300893582 1005278830
            -1263298625 111855807 1911553727 861895295</internalNodes>
          <leafValues>
            -8.0640548467636108e-01 4.2711931467056274e-01</leafValues></_></weakClassifiers></_>
    <!-- stage 10 -->
    <_>
      <maxWeakCount>7</maxWeakCount>
      <stageThreshold>-1.5821607112884521e+00</stageThreshold>
      <weakClassifiers>
        <_>
          <internalNodes>
            0 -1 45 -573965533 -78827367 -1064777673 -112099201
            -625809281 -107446118 -377190145 -74721077</internalNodes>
          <leafValues>
            -8.2629561424255371e-01 7.2283983230590820e-01</leafValues></_>
        <_>
          <internalNodes>
            0 -1 62 -743450113 -716086759 -1600978465 -708464481
            -102244225 -895571829 -1414138881 -1678410909</internalNodes>
          <leafValues>
            -7.8829044103622437e-01 5.3996640443801880e-01</leafValues></_>
        <_>
          <internalNodes>
            0 -1 28 -1828613807 -894365551 269553683 -11333293 822083729
            -1305411584 -1207916093 1319673555</internalNodes>
          <leafValues>
            -7.9153978824615479e-01 4.9227622151374817e-01</leafValues></_>
        <_>
          <internalNodes>
            0 -1 10 -68267017 -280061538 1090900315 -7585416 -288653125
            -74741629 -359063137 -1090843777</internalNodes>
          <leafValues>
            -7.4781131744384766e-01 4.5269945263862610e-01</leafValues></_>
        <_>
          <internalNodes>
            0 -1 63 -215264491 -8945839 2003529535 -164003 2136342527
            -2261520 1971290043 -688655</internalNodes>
          <leafValues>
            -5.5283278226852417e-01 6.2642174959182739e-01</leafValues></_>
        <_>
          <internalNodes>
            0 -1 14 803987071 -504753694 1407357688 -1142459866
            1134500703 431064427 2077955547 288091035</internalNodes>
          <leafValues>
            -8.3396834135055542e-01 4.4735339283943176e-01</leafValues></_>
        <_>
          <internalNodes>
            0 -1 59 -81211817 -721034622 -1031683925 2077191147
            -893267225 1217119778 1244195467 2146332351</internalNodes>
          <leafValues>
            -7.7106362581253052e-01 3.9343976974487305e-01</leafValues></_></weakClassifiers></_>
    <!-- stage 11 -->
    <_>
      <maxWeakCount>8</maxWeakCount>
      <stageThreshold>-1.2420697212219238e+00</stageThreshold>
      <weakClassifiers>
        <_>
          <internalNodes>
            0 -1 16 -305704 -1 -39 -9437185 -35 -100663553 -589309752
            -538977313</internalNodes>
          <leafValues>
            -7.2246694564819336e-01 7.2962486743927002e-01</leafValues></_>
        <_>
          <internalNodes>
            0 -1 42 -1343260849 -235671437 1548873937 -36454125
            -111020293 -1610481632 -788274253 -67896357</internalNodes>
          <leafValues>
            -7.2122234106063843e-01 5.7067269086837769e-01</leafValues></_>
        <_>
          <internalNodes>
            0 -1 26 -1054637104 -2665642 -616555567 536171327
            -2012511829 -1148582903 -356021077 -289436773</internalNodes>
          <leafValues>
            -6.5301018953323364e-01 5.9451800584793091e-01</leafValues></_>
        <_>
          <internalNodes>
            0 -1 17 200987 1376976915 -208807463 -1750182531 -2146959205
            -2122168317 -1308060743 -1708215878</internalNodes>
          <leafValues>
            -5.7343178987503052e-01 6.2844145298004150e-01</leafValues></_>
        <_>
          <internalNodes>
            0 -1 46 -1596114945 1166798867 -259545481 1231390719
            -216288804 -479219429 989287234 2096315363</internalNodes>
          <leafValues>
            -8.4048587083816528e-01 4.2564767599105835e-01</leafValues></_>
        <_>
          <internalNodes>
            0 -1 64 -3115 855808171 -1676696939 -1644088638 -90592308
            -427065206 -359928897 1122946943</internalNodes>
          <leafValues>
            -7.6158785820007324e-01 3.5788619518280029e-01</leafValues></_>
        <_>
          <internalNodes>
            0 -1 6 -1374170898 -279047602 89354751 -4255309 537854379
            -343867232 1267721151 529210027</internalNodes>
          <leafValues>
            -8.4777671098709106e-01 3.0986142158508301e-01</leafValues></_>
        <_>
          <internalNodes>
            0 -1 58 -783158817 -795295344 -642655747 -316932052
            -771575565 -1873805182 -68994625 2071986043</internalNodes>
          <leafValues>
            -9.3141418695449829e-01 3.3466622233390808e-01</leafValues></_></weakClassifiers></_>
    <!-- stage 12 -->
    <_>
      <maxWeakCount>7</maxWeakCount>
      <stageThreshold>-1.3032698631286621e+00</stageThreshold>
      <weakClassifiers>
        <_>
          <internalNodes>
            0 -1 41 -707003393 -2049342831 -564736480 -553713921
            -1853718306 -2146369433 -220201995 -16780297</internalNodes>
          <leafValues>
            -8.2437098026275635e-01 7.1127557754516602e-01</leafValues></_>
        <_>
          <internalNodes>
            0 -1 15 -1846834693 -1845952461 1627372780 -172518913
            17367551 -1593761760 -1476448001 -1187036929</internalNodes>
          <leafValues>
            -8.1288683414459229e-01 4.8020976781845093e-01</leafValues></_>
        <_>
          <internalNodes>
            0 -1 35 17891607 1 -1313529605 -239271436 1048611 1122337
            -1861058209 -104955300</internalNodes>
          <leafValues>
            -5.9326499700546265e-01 5.7648491859436035e-01</leafValues></_>
        <_>
          <internalNodes>
            0 -1 0 -1778389025 459472863 2129526365 1366290279
            -2099519745 145948671 578289279 -1703153665</internalNodes>
          <leafValues>
            -5.5394905805587769e-01 6.1322623491287231e-01</leafValues></_>
        <_>
          <internalNodes>
            0 -1 48 320573935 566825813 -1794080768 -202025992
            -2146369197 -2147483630 -258960677 1601696767</internalNodes>
          <leafValues>
            -9.1081368923187256e-01 3.6406266689300537e-01</leafValues></_>
        <_>
          <internalNodes>
            0 -1 32 -1875464393 -246185603 2033418265 1895530685
            -2028666853 -652074989 2036962299 -71591751</internalNodes>
          <leafValues>
            -5.5673068761825562e-01 5.7096362113952637e-01</leafValues></_>
        <_>
          <internalNodes>
            0 -1 66 -372524065 -1727397757 -1878980389 -2122039288
            -739509540 -1971126133 -116479078 -81647077</internalNodes>
          <leafValues>
            -6.2357425689697266e-01 6.0455906391143799e-01</leafValues></_></weakClassifiers></_></stages>
  <features>
    <_>
      <rect>
        1 5 4 8</rect></_>
    <_>
      <rect>
        1 7 6 5</rect></_>
    <_>
      <rect>
        2 9 7 2</rect></_>
    <_>
      <rect>
        4 6 4 6</rect></_>
    <_>
      <rect>
        4 10 8 6</rect></_>
    <_>
      <rect>
        5 11 2 5</rect></_>
    <_>
      <rect>
        6 10 5 2</rect></_>
    <_>
      <rect>
        6 11 7 4</rect></_>
    <_>
      <rect>
        7 3 4 8</rect></_>
    <_>
      <rect>
        7 6 6 2</rect></_>
    <_>
      <rect>
        7 10 2 3</rect></_>
    <_>
      <rect>
        7 10 6 6</rect></_>
    <_>
      <rect>
        7 13 5 4</rect></_>
    <_>
      <rect>
        9 3 2 6</rect></_>
    <_>
      <rect>
        9 8 4 5</rect></_>
    <_>
      <rect>
        9 10 5 4</rect></_>
    <_>
      <rect>
        9 10 7 5</rect></_>
    <_>
      <rect>
        9 12 4 2</rect></_>
    <_>
      <rect>
        9 12 4 3</rect></_>
    <_>
      <rect>
        9 13 5 1</rect></_>
    <_>
      <rect>
        10 3 2 8</rect></_>
    <_>
      <rect>
        10 5 2 8</rect></_>
    <_>
      <rect>
        10 7 2 6</rect></_>
    <_>
      <rect>
        10 8 3 5</rect></_>
    <_>
      <rect>
        10 9 3 2</rect></_>
    <_>
      <rect>
        10 9 3 4</rect></_>
    <_>
      <rect>
        10 11 3 2</rect></_>
    <_>
      <rect>
        10 12 3 3</rect></_>
    <_>
      <rect>
        10 14 3 1</rect></_>
    <_>
      <rect>
        11 2 2 8</rect></_>
    <_>
      <rect>
        11 3 6 9</rect></_>
    <_>
      <rect>
        11 9 3 5</rect></_>
    <_>
      <rect>
        11 10 3 2</rect></_>
    <_>
      <rect>
        11 11 2 3</rect></_>
    <_>
      <rect>
        11 12 2 2</rect></_>
    <_>
      <rect>
        11 13 4 2</rect></_>
    <_>
      <rect>
        11 13 5 3</rect></_>
    <_>
      <rect>
        12 9 4 4</rect></_>
    <_>
      <rect>
        12 11 4 3</rect></_>
    <_>
      <rect>
        12 13 3 5</rect></_>
    <_>
      <rect>
        12 14 3 4</rect></_>
    <_>
      <rect>
        12 16 3 4</rect></_>
    <_>
      <rect>
        13 4 2 4</rect></_>
    <_>
      <rect>
        13 7 2 6</rect></_>
    <_>
      <rect>
        13 8 3 5</rect></_>
    <_>
      <rect>
        13 8 4 2</rect></_>
    <_>
      <rect>
        13 9 3 5</rect></_>
    <_>
      <rect>
        13 12 3 3</rect></_>
    <_>
      <rect>
        13 13 2 3</rect></_>
    <_>
      <rect>
        13 13 3 2</rect></_>
    <_>
      <rect>
        13 15 2 2</rect></_>
    <_>
      <rect>
        14 8 2 5</rect></_>
    <_>
      <rect>
        14 12 3 3</rect></_>
    <_>
      <rect>
        14 15 1 1</rect></_>
    <_>
      <rect>
        15 3 3 7</rect></_>
    <_>
      <rect>
        15 5 2 6</rect></_>
    <_>
      <rect>
        15 7 2 6</rect></_>
    <_>
      <rect>
        15 10 2 4</rect></_>
    <_>
      <rect>
        15 16 1 1</rect></_>
    <_>
      <rect>
        16 3 2 8</rect></_>
    <_>
      <rect>
        16 4 2 8</rect></_>
    <_>
      <rect>
        16 7 4 5</rect></_>
    <_>
      <rect>
        16 10 2 4</rect></_>
    <_>
      <rect>
        16 11 2 1</rect></_>
    <_>
      <rect>
        18 6 2 5</rect></_>
    <_>
      <rect>
        19 8 2 5</rect></_>
    <_>
      <rect>
        19 11 2 4</rect></_></features></cascade>
</opencv_storage>
